net 
{
    node_size = (76 36);
}

node Main_Fuse
{
    label = "Main Fuse";
    position = (178 514);
    states = ("okay"  "blown");
}

node Battery_Age
{
    label = "Battery Age";
    position = (302 512);
    states = ("new"  "old"  "very_old");
}

node Alternator
{
    label = "Alternator";
    position = (422 515);
    states = ("Okay"  "Faulty");
}

node Charging_System
{
    label = "Charging System";
    position = (425 433);
    states = ("Okay"  "Faulty");
}

node Battery_Voltage
{
    label = "Battery Voltage";
    position = (302 429);
    states = ("strong"  "weak"  "dead");
}

node Distributer
{
    label = "Distributer";
    position = (595 498);
    states = ("Okay"  "Faulty");
}

node Voltage_at_Plug
{
    label = "Voltage at Plug";
    position = (304 246);
    states = ("strong"  "weak"  "none");
}

node Starter_Motor
{
    label = "Starter Motor";
    position = (114 235);
    states = ("Okay"  "Faulty");
}

node Starter_System
{
    label = "Starter System";
    position = (201 176);
    states = ("Okay"  "Faulty");
}

node Head_Lights
{
    label = "Head Lights";
    position = (78 293);
    states = ("bright"  "dim"  "off");
}

node Spark_Plugs
{
    label = "Spark Plugs";
    position = (323 162);
    states = ("okay"  "too_wide"  "fouled");
}

node Spark_Quality
{
    label = "Spark Quality";
    position = (428 139);
    states = ("good"  "bad"  "very_bad");
}

node Car_Cranks
{
    label = "Car Cranks";
    position = (202 91);
    states = ("True"  "False");
}

node Spark_Timing
{
    label = "Spark Timing";
    position = (596 372);
    states = ("good"  "bad"  "very_bad");
}

node Fuel_System
{
    label = "Fuel System";
    position = (370 87);
    states = ("Okay"  "Faulty");
}

node Air_Filter
{
    label = "Air Filter";
    position = (494 184);
    states = ("clean"  "dirty");
}

node Air_System
{
    label = "Air System";
    position = (523 109);
    states = ("Okay"  "Faulty");
}

node Car_Starts
{
    label = "Car Starts";
    position = (568 -19);
    states = ("True"  "False");
}

potential (Main_Fuse |)
{
    data = (0.99000000 0.01000000);
}

potential (Battery_Age |)
{
    data = (0.40000000 0.40000000 0.20000000);
}

potential (Alternator |)
{
    data = (0.99700000 0.00300000);
}

potential (Charging_System | Alternator)
{
    data = ((0.50000000 0.50000000)
        (0.00000000 1.00000000));
}

potential (Battery_Voltage | Battery_Age Charging_System)
{
    data = (((0.95000000 0.04000000 0.01000000)
        (0.00800000 0.30000000 0.69200000))
        ((0.80000000 0.15000000 0.05000000)
        (0.00400000 0.20000000 0.79600000))
        ((0.60000000 0.30000000 0.10000000)
        (0.00200000 0.10000000 0.89800000)));
}

potential (Distributer |)
{
    data = (0.99000000 0.01000000);
}

potential (Voltage_at_Plug | Main_Fuse Distributer Battery_Voltage)
{
    data = ((((0.90000000 0.05000000 0.05000000)
        (0.00000000 0.90000000 0.10000000)
        (0.00000000 0.00000000 1.00000000))
        ((0.10000000 0.10000000 0.80000000)
        (0.00000000 0.10000000 0.90000000)
        (0.00000000 0.00000000 1.00000000)))
        (((0.00000000 0.00000000 1.00000000)
        (0.00000000 0.00000000 1.00000000)
        (0.00000000 0.00000000 1.00000000))
        ((0.00000000 0.00000000 1.00000000)
        (0.00000000 0.00000000 1.00000000)
        (0.00000000 0.00000000 1.00000000))));
}

potential (Starter_Motor |)
{
    data = (0.99500000 0.00500000);
}

potential (Starter_System | Main_Fuse Starter_Motor Battery_Voltage)
{
    data = ((((0.98000000 0.02000000)
        (0.90000000 0.10000000)
        (0.10000000 0.90000000))
        ((0.02000000 0.98000000)
        (0.01000000 0.99000000)
        (0.00500000 0.99500000)))
        (((0.00000000 1.00000000)
        (0.00000000 1.00000000)
        (0.00000000 1.00000000))
        ((0.00000000 1.00000000)
        (0.00000000 1.00000000)
        (0.00000000 1.00000000))));
}

potential (Head_Lights | Battery_Voltage)
{
    data = ((0.94000000 0.01000000 0.05000000)
        (0.00000000 0.95000000 0.05000000)
        (0.00000000 0.00000000 1.00000000));
}

potential (Spark_Plugs |)
{
    data = (0.70000000 0.10000000 0.20000000);
}

potential (Spark_Quality | Spark_Plugs Voltage_at_Plug)
{
    data = (((1.00000000 0.00000000 0.00000000)
        (0.00000000 1.00000000 0.00000000)
        (0.00000000 0.00000000 1.00000000))
        ((0.00000000 1.00000000 0.00000000)
        (0.00000000 0.00000000 1.00000000)
        (0.00000000 0.00000000 1.00000000))
        ((0.00000000 1.00000000 0.00000000)
        (0.00000000 0.00000000 1.00000000)
        (0.00000000 0.00000000 1.00000000)));
}

potential (Car_Cranks | Starter_System)
{
    data = ((0.80000000 0.20000000)
        (0.05000000 0.95000000));
}

potential (Spark_Timing | Distributer)
{
    data = ((0.90000000 0.09000000 0.01000000)
        (0.20000000 0.30000000 0.50000000));
}

potential (Fuel_System |)
{
    data = (0.90000000 0.10000000);
}

potential (Air_Filter |)
{
    data = (0.90000000 0.10000000);
}

potential (Air_System | Air_Filter)
{
    data = ((0.90000000 0.10000000)
        (0.30000000 0.70000000));
}

potential (Car_Starts | Car_Cranks Fuel_System Spark_Quality Air_System Spark_Timing)
{
    data = ((((((0.99000000 0.01000000)
        (0.98000000 0.02000000)
        (0.70000000 0.30000000))
        ((0.80000000 0.20000000)
        (0.75000000 0.25000000)
        (0.60000000 0.40000000)))
        (((0.70000000 0.30000000)
        (0.65000000 0.35000000)
        (0.50000000 0.50000000))
        ((0.60000000 0.40000000)
        (0.50000000 0.50000000)
        (0.40000000 0.60000000)))
        (((0.00000000 1.00000000)
        (0.00000000 1.00000000)
        (0.00000000 1.00000000))
        ((0.00000000 1.00000000)
        (0.00000000 1.00000000)
        (0.00000000 1.00000000))))
        ((((0.10000000 0.90000000)
        (0.05000000 0.95000000)
        (0.02000000 0.98000000))
        ((0.05000000 0.95000000)
        (0.02000000 0.98000000)
        (0.01000000 0.99000000)))
        (((0.05000000 0.95000000)
        (0.02000000 0.98000000)
        (0.01000000 0.99000000))
        ((0.02000000 0.98000000)
        (0.01000000 0.99000000)
        (0.00000000 1.00000000)))
        (((0.00000000 1.00000000)
        (0.00000000 1.00000000)
        (0.00000000 1.00000000))
        ((0.00000000 1.00000000)
        (0.00000000 1.00000000)
        (0.00000000 1.00000000)))))
        (((((0.00000000 1.00000000)
        (0.00000000 1.00000000)
        (0.00000000 1.00000000))
        ((0.00000000 1.00000000)
        (0.00000000 1.00000000)
        (0.00000000 1.00000000)))
        (((0.00000000 1.00000000)
        (0.00000000 1.00000000)
        (0.00000000 1.00000000))
        ((0.00000000 1.00000000)
        (0.00000000 1.00000000)
        (0.00000000 1.00000000)))
        (((0.00000000 1.00000000)
        (0.00000000 1.00000000)
        (0.00000000 1.00000000))
        ((0.00000000 1.00000000)
        (0.00000000 1.00000000)
        (0.00000000 1.00000000))))
        ((((0.00000000 1.00000000)
        (0.00000000 1.00000000)
        (0.00000000 1.00000000))
        ((0.00000000 1.00000000)
        (0.00000000 1.00000000)
        (0.00000000 1.00000000)))
        (((0.00000000 1.00000000)
        (0.00000000 1.00000000)
        (0.00000000 1.00000000))
        ((0.00000000 1.00000000)
        (0.00000000 1.00000000)
        (0.00000000 1.00000000)))
        (((0.00000000 1.00000000)
        (0.00000000 1.00000000)
        (0.00000000 1.00000000))
        ((0.00000000 1.00000000)
        (0.00000000 1.00000000)
        (0.00000000 1.00000000))))));
}
